{
    "feature_names": [
        "cpu_psi_some_10",
        "cpu_psi_some_60",
        "cpu_psi_some_300",
        "cpu_psi_full_10",
        "cpu_psi_full_60",
        "cpu_psi_full_300",
        "io_psi_some_10",
        "io_psi_some_60",
        "io_psi_some_300",
        "io_psi_full_10",
        "io_psi_full_60",
        "io_psi_full_300",
        "mem_psi_some_10",
        "mem_psi_some_60",
        "mem_psi_some_300",
        "mem_psi_full_10",
        "mem_psi_full_60",
        "mem_psi_full_300",
        "load_avg_5",
        "load_avg_15",
        "procs_running",
        "procs_blocked",
        "procs_disk_io",
        "scheduler_PRIORITY",
        "scheduler_RR",
        "resource_CPU",
        "resource_IO",
        "resource_MEM"
    ],
    "children_left": [
        1,
        2,
        3,
        4,
        5,
        -1,
        -1,
        8,
        -1,
        -1,
        -1,
        12,
        13,
        14,
        -1,
        -1,
        17,
        -1,
        -1,
        20,
        -1,
        22,
        -1,
        -1,
        25,
        26,
        -1,
        -1,
        29,
        -1,
        -1
    ],
    "children_right": [
        24,
        11,
        10,
        7,
        6,
        -1,
        -1,
        9,
        -1,
        -1,
        -1,
        19,
        16,
        15,
        -1,
        -1,
        18,
        -1,
        -1,
        21,
        -1,
        23,
        -1,
        -1,
        28,
        27,
        -1,
        -1,
        30,
        -1,
        -1
    ],
    "feature": [
        7,
        1,
        9,
        1,
        6,
        -2,
        -2,
        24,
        -2,
        -2,
        -2,
        24,
        18,
        19,
        -2,
        -2,
        1,
        -2,
        -2,
        18,
        -2,
        18,
        -2,
        -2,
        11,
        8,
        -2,
        -2,
        11,
        -2,
        -2
    ],
    "threshold": [
        2.4944883584976196,
        0.021703633945435286,
        2.650446653366089,
        -0.9982797503471375,
        -0.3229235112667084,
        -2.0,
        -2.0,
        0.5,
        -2.0,
        -2.0,
        -2.0,
        0.5,
        -0.7835530042648315,
        -1.3152440190315247,
        -2.0,
        -2.0,
        0.5448000431060791,
        -2.0,
        -2.0,
        -0.2454814910888672,
        -2.0,
        0.8177132904529572,
        -2.0,
        -2.0,
        3.423672080039978,
        2.5453585386276245,
        -2.0,
        -2.0,
        4.142862558364868,
        -2.0,
        -2.0
    ],
    "value": [
        0.00011220132245376491,
        -0.1893801488694149,
        -1.1484346980285185,
        -1.3617676763176587,
        -1.7603443312361373,
        -1.958503432776327,
        -1.5232611204648396,
        -1.0682052298806952,
        -0.8907834814946068,
        -1.2435148145955204,
        0.4796327678622929,
        0.05968548226612422,
        0.23776659348055537,
        -0.3744207974913877,
        -0.664805518176026,
        -0.16323190972074156,
        0.32174897924565904,
        0.23003416774367752,
        0.4743130406864569,
        -0.11755164263923404,
        -0.8294189031028151,
        -0.09312482487822876,
        -0.15656620533209356,
        0.1247825253763506,
        2.791615249056368,
        2.046419915744995,
        1.5976555630398437,
        2.366965881962959,
        3.3877715157054675,
        3.0905521735346375,
        3.5859177438193544
    ]
}